<?xml version="1.0"?>
<opencv_storage>
<my_svm type_id="opencv-ml-svm">
  <svm_type>C_SVC</svm_type>
  <kernel><type>LINEAR</type></kernel>
  <C>1.0000000000000000e-02</C>
  <term_criteria><epsilon>1.1920928955078125e-07</epsilon>
    <iterations>50000</iterations></term_criteria>
  <var_all>3780</var_all>
  <var_count>3780</var_count>
  <class_count>2</class_count>
  <class_labels type_id="opencv-matrix">
    <rows>1</rows>
    <cols>2</cols>
    <dt>i</dt>
    <data>
      -1 1</data></class_labels>
  <sv_total>1</sv_total>
  <support_vectors>
    <_>
      -5.50175160e-02 -2.18604077e-02 3.75731057e-03 -2.68889014e-02
      -3.39184515e-03 1.82572880e-03 6.62037451e-03 4.40349989e-02
      -5.90044111e-02 -1.12108566e-01 -3.67858447e-02 1.37287071e-02
      1.14026852e-02 -6.13554940e-02 -5.69213517e-02 -2.30250135e-02
      2.75153462e-02 -1.01180658e-01 -7.47783780e-02 -3.10060345e-02
      4.34123129e-02 2.08521560e-02 -5.08353598e-02 1.83219388e-02
      3.01946476e-02 7.34257996e-02 -1.77988596e-03 -7.89829865e-02
      -4.99424078e-02 1.87663827e-02 1.33731570e-02 -3.46115455e-02
      -5.68459369e-02 -1.37809776e-02 4.38759029e-02 -7.04376101e-02
      -6.60231942e-03 -5.01348339e-02 6.59004506e-03 2.88447421e-02
      3.74155380e-02 -8.29188328e-04 2.40252372e-02 4.45560962e-02
      -4.06716391e-02 -5.63244149e-02 -4.93139885e-02 -5.82910667e-04
      -1.44750178e-02 -1.54672936e-02 -3.57052945e-02 -2.53955368e-02
      -2.29203869e-02 -1.01700097e-01 2.11214032e-02 -1.65756734e-03
      2.64915358e-02 3.99828590e-02 3.30609619e-03 -2.11516693e-02
      4.56336662e-02 3.80304046e-02 2.93152616e-03 -1.70423128e-02
      -1.31687550e-02 1.86823327e-02 -5.66223897e-02 -5.25042862e-02
      -5.37551753e-02 7.85552431e-03 -1.29561722e-02 -4.21883948e-02
      -4.53014672e-02 -7.39885196e-02 2.37239357e-02 -2.32081697e-03
      2.50240508e-02 -3.97249311e-02 -6.65745046e-03 3.04793543e-03
      -5.49643338e-02 -6.30269647e-02 -1.11056373e-01 2.02771481e-02
      2.28970498e-02 1.16454996e-02 -8.49437416e-02 -2.42433492e-02
      -5.78523753e-03 -6.64175153e-02 -4.96878102e-03 4.72063525e-03
      4.14951891e-02 6.18230598e-03 -1.42341871e-02 -1.05028441e-02
      4.64167967e-02 2.80075166e-02 -1.82267558e-02 -6.24481365e-02
      -2.21849512e-02 2.64919642e-02 3.22481245e-02 2.26977598e-02
      -3.79046164e-02 1.27181308e-02 1.74790807e-02 -5.30381612e-02
      6.03078119e-03 -4.62812223e-02 5.11745550e-02 5.75203374e-02
      2.60642990e-02 -2.63818055e-02 5.89457937e-02 5.28009981e-02
      1.83679052e-02 -2.70634424e-02 -5.51200099e-02 2.67693736e-02
      4.48494218e-02 4.47697900e-02 -4.03954946e-02 4.52179136e-03
      -5.20424778e-03 -1.89605486e-02 1.69867016e-02 3.05139576e-03
      3.47155221e-02 7.46345446e-02 -2.67895665e-02 -1.99784804e-02
      8.07520151e-02 5.23311533e-02 1.49175050e-02 -5.88616822e-03
      -3.28158028e-02 1.40131905e-03 2.57665962e-02 -8.96170549e-03
      -3.60434055e-02 1.81150828e-02 3.32264118e-02 -5.19184349e-03
      6.62839413e-02 1.09418798e-02 5.22043295e-02 2.00312734e-02
      6.51655300e-03 -7.51910433e-02 1.68560240e-02 2.49920171e-02
      7.90295899e-02 5.89550063e-02 2.82403566e-02 4.00679298e-02
      6.13448545e-02 -3.27120237e-02 -1.15652114e-01 -3.40418555e-02
      3.87037583e-02 4.68752645e-02 4.59735543e-02 -5.78225367e-02
      -2.60439096e-03 4.04159799e-02 -3.18247229e-02 -5.19302785e-02
      2.45914590e-02 2.24580932e-02 7.27381483e-02 2.00477559e-02
      -3.22991237e-02 2.82513816e-02 6.78153411e-02 -1.03176227e-02
      -6.04241788e-02 4.06274907e-02 5.32388538e-02 4.26800475e-02
      2.32206061e-02 1.07655786e-02 3.23077627e-02 3.58582214e-02
      -5.58408685e-02 -1.20593317e-01 -1.84798762e-02 1.78792477e-02
      3.43012623e-02 1.60056073e-02 4.13223095e-02 8.50798413e-02
      8.25232491e-02 4.20476077e-03 -6.08793087e-02 5.05398177e-02
      1.39526343e-02 4.91604246e-02 -2.27041394e-02 -3.17746028e-02
      4.66942452e-02 7.47280419e-02 -3.69065590e-02 -6.02345392e-02
      1.68244336e-02 6.31295610e-03 1.65829137e-02 -7.28813885e-03
      4.57251724e-03 5.53526767e-02 7.91336223e-02 -3.92984189e-02
      -6.07830659e-02 2.30856426e-02 1.43744200e-02 9.18523781e-03
      -2.34662592e-02 1.37927718e-02 5.44246063e-02 6.16092514e-03
      -6.91116676e-02 -6.15403652e-02 1.85984205e-02 -2.27972921e-02
      1.27967875e-02 4.96937148e-02 3.06966808e-02 1.03159048e-01
      5.98203205e-02 -1.84026454e-02 -3.84966023e-02 7.91206434e-02
      5.59995808e-02 7.31658861e-02 -3.47623751e-02 -2.09816601e-02
      2.85500474e-02 1.27318921e-02 -9.95195657e-02 -5.45223393e-02
      -6.98244665e-03 -3.92374992e-02 -4.50566597e-02 4.34030108e-02
      1.70598589e-02 8.37878361e-02 6.56325892e-02 -4.70769741e-02
      -3.61419246e-02 6.22545704e-02 5.80391809e-02 4.99103442e-02
      1.71969775e-02 1.77456643e-02 7.66104311e-02 -1.00277818e-03
      -4.02122289e-02 -1.24481425e-01 3.57030495e-03 4.33813361e-03
      3.36015373e-02 5.48104718e-02 7.80526698e-02 8.55560675e-02
      4.64511923e-02 -9.73265991e-03 -7.50010908e-02 2.58392245e-02
      1.59942023e-02 2.81539168e-02 8.21471307e-03 -2.58615594e-02
      3.54755111e-02 -1.65047590e-02 -7.14916587e-02 -1.02689214e-01
      -4.51761819e-02 -2.56753322e-02 1.29049243e-02 -9.51828714e-03
      -2.47624004e-03 3.38455439e-02 1.79582573e-02 -2.76033580e-02
      -1.15567865e-02 -3.28263058e-03 7.06685823e-04 3.84917902e-03
      2.96752434e-02 3.94126289e-02 5.31386677e-03 -2.93625519e-02
      -2.04388928e-02 -8.97448063e-02 -4.71670739e-02 -6.39711099e-04
      -5.99082373e-03 2.01283693e-02 -3.59287416e-03 1.56337824e-02
      -5.15913777e-02 1.39836464e-02 -7.67314658e-02 -4.58499752e-02
      1.29169514e-02 4.17001732e-02 -1.85961314e-02 -1.78176630e-02
      -3.02369446e-02 -4.35750037e-02 -1.74967255e-02 -2.62965378e-03
      -4.99768443e-02 -3.59081738e-02 -4.66684029e-02 4.14452516e-02
      -4.61225864e-03 -1.23662865e-02 -4.46863798e-03 3.67141217e-02
      6.00037314e-02 5.98562090e-03 3.68398102e-03 4.06617522e-02
      -2.66656652e-02 -4.38464247e-02 -7.95622263e-03 -4.67547514e-02
      2.14713048e-02 -4.99725901e-02 -1.77089721e-02 -6.26354432e-03
      1.83568976e-03 -1.95364282e-02 -5.62412515e-02 3.16552371e-02
      1.33011863e-03 2.57153288e-02 -2.12239884e-02 2.79845055e-02
      1.97991002e-02 2.10131556e-02 2.44116847e-04 -2.23477352e-02
      1.38668818e-02 -1.28042593e-03 5.89813441e-02 4.48645428e-02
      2.62591057e-03 -3.07306815e-02 1.42395161e-02 4.43048179e-02
      -1.31528564e-02 5.45334294e-02 1.96988713e-02 5.13477176e-02
      6.66772202e-02 4.51053493e-02 -5.73974894e-03 1.40805896e-02
      9.13784083e-04 -5.32654710e-02 1.13377878e-02 -3.70785221e-02
      -8.02765787e-03 -3.48994359e-02 2.12837365e-02 -1.06576434e-03
      4.34066728e-03 2.33319569e-02 -4.01459150e-02 -1.18129896e-02
      -4.65464778e-02 -6.03445200e-03 -2.18702815e-02 -3.33840437e-02
      -4.48556580e-02 1.44083975e-02 5.08567132e-02 -3.01069636e-02
      4.15816391e-03 -2.23991345e-03 -3.18210665e-03 6.24483125e-03
      1.15848817e-02 -1.50805339e-02 4.48152013e-02 4.58079278e-02
      -8.16325564e-03 2.04578019e-03 2.21511419e-03 -1.97857320e-02
      3.63019258e-02 9.38086864e-03 -2.30942890e-02 5.01366258e-02
      1.86015815e-02 -4.76093851e-02 -2.75936984e-02 -6.28669336e-02
      8.95710010e-03 -3.70742790e-02 -1.87380463e-02 -2.31251307e-02
      1.54543668e-02 9.18807089e-03 -4.59258743e-02 -2.07309388e-02
      -2.65594069e-02 4.59037609e-02 -4.25613485e-02 1.98739246e-02
      5.49449995e-02 3.08672264e-02 1.04344487e-02 -4.59781997e-02
      -1.52120283e-02 -1.85243525e-02 1.66220393e-03 -1.74961612e-02
      -1.84122529e-02 -9.71907470e-03 1.21105975e-02 -5.27595123e-03
      1.07815526e-02 4.11245450e-02 2.97282264e-02 3.37134600e-02
      -6.20054314e-03 -8.68233852e-03 5.71455481e-03 2.01463308e-02
      1.85731165e-02 -7.30963424e-02 -1.54859694e-02 -5.98554648e-02
      -4.34859935e-03 -8.83947685e-02 -8.78995750e-03 3.98776308e-02
      4.86289300e-02 7.66112506e-02 -1.21388724e-02 4.38496098e-02
      2.28735013e-03 1.20567000e-02 -2.41912492e-02 -4.17822972e-03
      2.73494031e-02 1.03181407e-01 -4.49306816e-02 -2.18864586e-02
      4.08517867e-02 -3.04052979e-03 -1.90112554e-02 -5.60524985e-02
      -5.14185764e-02 -1.32014547e-02 4.63867281e-03 5.24526788e-03
      -1.88066233e-02 1.93680618e-02 2.91656870e-02 -4.37740935e-03
      -8.19008611e-03 -3.08963526e-02 5.05633280e-02 4.92087118e-02
      1.52745703e-02 -6.63700560e-03 3.87226231e-03 -2.29906514e-02
      -2.12091506e-02 -4.04360741e-02 -4.99897338e-02 -6.17957152e-02
      1.30186696e-02 2.52361968e-02 4.92780581e-02 3.02239973e-02
      2.16733906e-02 6.77446797e-02 -2.59139091e-02 -1.36202499e-02
      4.79659392e-03 3.06461174e-02 -4.34625574e-04 -1.75543949e-02
      -2.55755633e-02 -4.73201089e-02 -6.91062286e-02 -3.34854908e-02
      -4.70950939e-02 -1.41186761e-02 -3.03462390e-02 5.50660789e-02
      5.09088598e-02 4.96875076e-03 -1.13780927e-02 4.56985570e-02
      4.41242615e-03 2.33024172e-02 2.93391366e-02 2.14412082e-02
      -3.06434520e-02 3.58728506e-02 5.26442528e-02 1.48683786e-02
      8.71994421e-02 1.40924845e-02 2.26498991e-02 -1.49983997e-02
      -4.58228253e-02 -2.41354480e-02 7.33854100e-02 7.74471983e-02
      4.86659706e-02 1.17779210e-01 -8.59629456e-03 1.05138067e-02
      -2.04363093e-02 -5.04611284e-02 -2.26196852e-02 4.55650687e-02
      1.49836261e-02 -5.03398338e-03 6.64801821e-02 1.97061114e-02
      2.10144948e-02 -8.95229727e-03 -4.11555469e-02 -1.97846852e-02
      8.21690261e-02 6.89710081e-02 4.48170267e-02 3.53365988e-02
      -4.14126962e-02 -1.50572862e-02 -2.08380036e-02 -1.61074512e-02
      -7.69620389e-02 -1.79193374e-02 4.00841124e-02 2.67271698e-02
      -4.22579385e-02 -8.84911977e-03 8.39668289e-02 1.02449343e-01
      -8.32971092e-03 -1.03890993e-01 -1.86442956e-02 4.51800637e-02
      3.38142961e-02 -1.16189364e-02 -5.83943278e-02 -5.82288066e-03
      6.10133410e-02 -7.79718459e-02 -4.68976572e-02 -4.63838279e-02
      1.17261373e-02 -3.89596289e-06 -5.99009022e-02 -5.76590672e-02
      1.23992786e-02 4.28225808e-02 1.60205606e-02 -1.04431778e-01
      -2.77453400e-02 1.15883835e-02 6.14697933e-02 -3.29707144e-03
      -3.46853063e-02 -1.62862353e-02 3.79582718e-02 -6.44656047e-02
      -1.41586233e-02 1.64110716e-02 7.10652843e-02 6.59103841e-02
      -6.91391388e-03 -4.65761311e-02 3.81464325e-02 4.05194163e-02
      -1.32590635e-02 -3.69741693e-02 5.35434956e-05 5.49868308e-02
      2.84720585e-02 -3.32786515e-02 -3.56042422e-02 1.29502611e-02
      1.11403260e-02 -5.87921590e-02 -3.63045745e-02 -3.65541093e-02
      3.43410694e-03 3.99774127e-02 -1.26053523e-02 -4.64786477e-02
      5.11135273e-02 7.19925091e-02 1.73112880e-02 -4.42430340e-02
      -4.18951474e-02 -9.93525609e-03 4.01354693e-02 -3.38060260e-02
      -3.62901613e-02 5.73197976e-02 6.50774837e-02 -2.24837437e-02
      3.66409332e-03 8.03383067e-03 5.24972267e-02 2.54223980e-02
      -1.67604182e-02 -4.36206609e-02 5.83534874e-02 4.81992848e-02
      -8.45309533e-03 -5.23024006e-03 -4.60576825e-02 2.14220301e-04
      4.15068455e-02 8.18210072e-04 -5.20565808e-02 -2.71006301e-02
      -1.20143220e-02 -4.02495936e-02 -5.04976697e-03 -1.71514526e-02
      -1.73436641e-03 4.49652337e-02 2.29213270e-03 -4.58888412e-02
      1.72347352e-02 1.58494264e-02 2.26442280e-04 -2.10840236e-02
      -1.64696313e-02 -4.97362465e-02 -2.48075258e-02 -4.92011793e-02
      -3.99971418e-02 -3.03486977e-02 -5.35323285e-02 -2.10134666e-02
      1.05507337e-01 3.26473303e-02 3.76478024e-02 7.97397867e-02
      -3.26551013e-02 -1.81995779e-02 5.65610789e-02 5.75775802e-02
      6.96002394e-02 -6.53936120e-04 -5.42103723e-02 1.34314196e-02
      6.59850389e-02 -1.03115560e-02 -4.81673516e-02 2.44860779e-02
      3.85621041e-02 2.07242277e-02 8.29684660e-02 -1.52129577e-02
      -6.95703253e-02 2.28049308e-02 -1.85651984e-02 1.49942078e-02
      3.69945429e-02 4.87762727e-02 8.51417333e-02 -4.61910665e-02
      -1.30350113e-01 -7.18568787e-02 4.31032814e-02 1.40724182e-02
      8.08414537e-03 2.77052857e-02 7.18604401e-02 2.18223203e-02
      -2.91668363e-02 -1.16831459e-01 1.06527330e-02 7.50684887e-02
      -1.90246645e-02 -3.19626629e-02 4.03957628e-02 2.72235218e-02
      5.28133810e-02 -4.71570566e-02 -7.99877644e-02 5.26972078e-02
      1.04406185e-01 1.15019390e-02 -3.06240413e-02 8.24639574e-02
      3.05335689e-02 1.61172152e-02 -7.32484236e-02 -1.53136283e-01
      3.08503769e-02 9.44461673e-02 4.41890396e-02 8.35620239e-03
      6.24440499e-02 7.40056187e-02 2.71312129e-02 -2.42800359e-02
      -4.95874882e-02 1.02089070e-01 9.44008678e-02 4.63798456e-02
      1.79763362e-02 1.00351088e-01 5.93612790e-02 2.56575439e-02
      -3.85261029e-02 -8.36517215e-02 5.64391837e-02 7.10286945e-02
      -5.27320579e-02 -7.09798411e-02 6.18897043e-02 -2.34290697e-02
      -1.90491099e-02 -1.97400898e-02 -4.04282771e-02 6.14202395e-02
      5.54498397e-02 -6.16584793e-02 -9.08545256e-02 2.37461571e-02
      -3.64337629e-03 -3.52191553e-02 1.07997600e-02 -2.98251677e-02
      9.41688791e-02 8.46140981e-02 1.03256581e-02 -5.63038290e-02
      5.78635409e-02 3.70059870e-02 3.30330506e-02 2.33828966e-02
      -9.70452651e-03 1.03336416e-01 7.27514997e-02 1.82787736e-03
      -3.12102512e-02 3.41264158e-02 5.22344783e-02 4.39374335e-02
      -5.64509183e-02 -5.70951439e-02 4.71493900e-02 1.96626596e-02
      -7.52639249e-02 -6.64412826e-02 -2.61180215e-02 -5.34294061e-02
      -6.14998229e-02 9.67379939e-03 -4.99371290e-02 7.97866285e-02
      8.65738764e-02 -1.54514136e-02 -2.95741670e-02 1.31603731e-02
      -5.36582898e-03 7.58440793e-03 -5.75140901e-02 -1.02887876e-01
      5.55680580e-02 1.44945085e-02 -6.66041044e-04 -3.54643054e-02
      -5.37580028e-02 1.84786730e-02 7.48236617e-03 -2.96265129e-02
      -5.34072779e-02 8.15534890e-02 8.14395696e-02 -1.87086000e-03
      1.51588423e-02 1.84455458e-02 1.90721694e-02 3.36177908e-02
      -2.17590714e-03 -4.73717153e-02 5.27589396e-02 1.47255417e-02
      -4.63747792e-03 -5.99061139e-02 -1.00631434e-02 -2.63182335e-02
      -1.08221136e-02 -1.18787615e-02 -1.57245789e-02 6.81380928e-02
      1.29890488e-02 -1.40817370e-02 -1.10966917e-02 8.92375479e-04
      1.30292485e-02 2.45634629e-03 -7.98646063e-02 -5.71094677e-02
      5.70258535e-02 2.51456965e-02 2.54962947e-02 -3.50375175e-02
      -1.23294322e-02 -1.80328940e-03 1.32484676e-03 -2.58171931e-02
      -4.90342779e-03 6.52293563e-02 5.74202463e-03 -1.08321654e-02
      -2.55790148e-02 3.96021679e-02 2.43369695e-02 -2.34672520e-02
      -2.59437710e-02 -3.20267081e-02 -2.57487707e-02 -6.08402453e-02
      -5.22513278e-02 -6.37891367e-02 -2.38104276e-02 -3.03820525e-05
      -3.59824412e-02 4.35771160e-02 4.27484587e-02 1.83996391e-02
      -1.54796180e-05 -2.89001931e-02 1.14014652e-02 -2.25163135e-03
      3.01197115e-02 1.68423783e-02 -1.13035496e-02 -2.62282472e-02
      8.88589397e-03 -6.18907958e-02 -3.31690907e-02 -4.97162864e-02
      -1.81795508e-02 -2.00031120e-02 -2.28141770e-02 2.17348114e-02
      3.42317298e-02 3.17319296e-02 3.14926798e-03 -1.25352954e-02
      5.54017024e-03 4.83582281e-02 3.05528399e-02 1.54173365e-02
      3.52717377e-02 1.69616416e-02 3.04118115e-02 3.91748222e-03
      1.28360128e-03 5.17812930e-03 -2.65627224e-02 -2.18815804e-02
      1.54698333e-02 5.60234785e-02 -1.85303651e-02 3.50974128e-02
      3.81555557e-02 1.92028992e-02 2.88565326e-02 1.26078539e-02
      6.71903929e-03 4.58945110e-02 -3.27438191e-02 -1.03155170e-02
      2.80305780e-02 -1.71636958e-02 -3.36064026e-02 -4.26717773e-02
      2.22006533e-03 1.29216560e-03 4.39366046e-03 -1.86906476e-03
      -5.23057505e-02 1.36863068e-02 1.34465899e-02 -3.69878933e-02
      -2.35752426e-02 1.47973932e-02 3.36963646e-02 1.58678722e-02
      7.07287341e-02 -4.32054140e-02 1.72101893e-02 3.71431410e-02
      2.10862141e-03 3.05483043e-02 1.94245260e-02 -1.27602378e-02
      9.27986503e-02 4.01997454e-02 -3.81054543e-02 -1.10476073e-02
      -2.06284644e-03 4.39499691e-02 7.18651712e-02 1.70019921e-02
      -1.20089017e-02 5.22459634e-02 9.19884350e-03 -6.58236668e-02
      -2.01317924e-03 1.15269786e-02 -5.25816493e-02 -2.10922351e-03
      2.65492294e-02 6.54294668e-03 5.40687442e-02 -1.72178242e-02
      -5.89175038e-02 1.06113718e-03 -1.97254624e-02 -7.47370273e-02
      3.98681150e-04 2.64278892e-02 2.00640298e-02 -2.90102581e-03
      -1.81367900e-02 -6.75576627e-02 -1.47583662e-02 -1.88414957e-02
      5.47681190e-02 2.85860281e-02 2.30262317e-02 1.70948785e-02
      3.12993191e-02 -1.65847503e-02 -8.72433558e-03 2.49830075e-02
      2.23459862e-02 6.12888597e-02 6.36871578e-03 9.92584880e-03
      -2.19860161e-03 3.87952924e-02 -4.44181375e-02 -7.71935061e-02
      -5.19767264e-03 -3.70425321e-02 -4.99360077e-02 -2.27266308e-02
      2.89447978e-02 3.35203446e-02 2.36834176e-02 -4.26901430e-02
      -4.83282171e-02 -2.33370997e-02 -3.58041329e-03 -4.96733515e-03
      5.92876878e-03 -1.07484143e-02 6.28298335e-03 -1.59452751e-03
      7.22954981e-03 1.20837393e-03 4.14438546e-02 1.47163486e-02
      1.85453948e-02 -5.85322408e-03 -4.05347347e-02 -2.90721916e-02
      4.65450138e-02 3.06625962e-02 -4.77336755e-04 3.68273072e-02
      5.94496913e-02 3.91809084e-02 -1.56604685e-02 -2.34772488e-02
      3.36040184e-02 7.37157017e-02 1.23437878e-03 -5.08801825e-02
      -2.69368403e-02 -4.34837155e-02 -4.47820127e-02 -3.95260081e-02
      -5.92600778e-02 -4.81307395e-02 -1.00906910e-02 1.00714928e-02
      -2.77116802e-02 6.95299916e-03 2.08579879e-02 -4.29626182e-02
      -6.86523616e-02 -5.97947240e-02 -6.52768239e-02 1.37436241e-02
      1.00052624e-03 1.81048792e-02 -1.88667292e-03 6.43947627e-03
      -2.46099792e-02 -6.34950399e-02 -2.90359594e-02 1.98319349e-02
      1.60507429e-02 8.32813382e-02 4.67364453e-02 -3.35367001e-03
      -6.02141069e-03 6.51618987e-02 2.86513157e-02 5.53847067e-02
      8.76162350e-02 6.33903593e-02 -1.98162291e-02 -4.13364433e-02
      -4.66733575e-02 -4.06812616e-02 -7.22654611e-02 -1.04322158e-01
      -1.07855305e-01 -6.97600394e-02 -1.61184985e-02 2.56659370e-02
      1.45910168e-02 -2.33783443e-02 -4.77418583e-03 -3.38829448e-03
      -8.84822756e-03 -1.46250501e-02 5.95083348e-02 6.18014894e-02
      1.72261260e-02 1.55737381e-02 -4.13894504e-02 -5.09501286e-02
      4.98523228e-02 4.47265953e-02 5.12255244e-02 4.59616669e-02
      1.06965797e-02 4.15646136e-02 5.07942885e-02 9.26194154e-03
      8.82917270e-03 2.46692332e-03 -4.32746373e-02 2.39167623e-02
      5.25118560e-02 2.47020088e-02 -1.37280840e-02 -1.16653144e-02
      -8.09676722e-02 -3.22971717e-02 4.02451567e-02 4.80607189e-02
      1.04772625e-02 6.33273646e-02 2.45495699e-02 4.75294814e-02
      5.98366663e-04 -5.57625964e-02 2.42359447e-03 -2.63734795e-02
      -5.21920025e-02 4.73642908e-02 6.47192299e-02 4.00063805e-02
      3.04172095e-02 4.26811650e-02 3.19832228e-02 9.91823990e-03
      -4.84586656e-02 -4.89477664e-02 1.40612526e-02 4.30166870e-02
      2.97976397e-02 -7.32810125e-02 1.77181680e-02 -1.23744179e-02
      1.23401564e-02 2.28309911e-03 7.35551657e-05 4.89475727e-02
      2.94839200e-02 -4.31748033e-02 5.36343120e-02 5.53812087e-02
      2.97491701e-04 -7.66752008e-03 -8.32690597e-02 -1.12831086e-01
      9.61030088e-03 6.36037067e-02 2.44489796e-02 -8.60789269e-02
      2.18813103e-02 -5.22200316e-02 -5.76228313e-02 -8.89632180e-02
      -5.75176254e-02 3.20032537e-02 5.77487499e-02 -8.51731971e-02
      4.73908484e-02 1.90827083e-02 -2.65253186e-02 2.14152504e-02
      -6.84732059e-03 3.13052572e-02 1.19358055e-01 1.35546640e-01
      1.11308306e-01 -2.23982390e-02 -5.13387881e-02 -3.34600993e-02
      4.36348200e-04 6.07495150e-03 -4.14453540e-03 6.25705793e-02
      7.07349628e-02 2.96075176e-02 -3.25100520e-03 -5.54896630e-02
      -1.36859387e-01 -1.15055911e-01 -9.87109765e-02 -9.08065587e-03
      3.75884511e-02 1.22141615e-01 6.10254668e-02 -1.28443852e-01
      -1.42980441e-01 -1.95972055e-01 -1.61428735e-01 -9.28498730e-02
      -5.32311685e-02 -9.84033756e-03 4.39978344e-03 -5.63825071e-02
      1.30955288e-02 1.84909813e-02 -3.95315466e-03 6.68204576e-02
      4.43352014e-02 2.91965101e-02 3.25679518e-02 -4.50319704e-03
      1.78970844e-02 2.58180853e-02 -1.59377940e-02 -5.73134683e-02
      7.32960692e-03 2.73161177e-02 4.07613292e-02 -2.02978384e-02
      -8.63228440e-02 7.57877715e-03 -7.92591050e-02 -6.78310916e-02
      -8.81748721e-02 -2.89778877e-02 2.15247385e-02 6.86537521e-03
      -1.98882278e-02 -9.25416052e-02 -1.12644628e-01 -5.91438301e-02
      -1.01868786e-01 -1.51534885e-01 -9.02276710e-02 -5.72564229e-02
      8.52712989e-03 -9.52827930e-02 -1.40965238e-01 -4.88069206e-02
      5.93916476e-02 -1.20425954e-01 -1.92883387e-01 -8.94043371e-02
      -5.32671064e-03 5.16002476e-02 5.71257360e-02 2.10761037e-02
      1.28844023e-01 -2.98472866e-02 -1.60121650e-01 -1.33302301e-01
      3.35364193e-02 5.12465499e-02 5.95612042e-02 8.33749548e-02
      1.06241718e-01 9.54331383e-02 8.08112249e-02 -1.18266091e-01
      -2.15200886e-01 -1.04187734e-01 -5.04129343e-02 -1.48034692e-02
      -2.14540679e-02 -1.52305905e-02 1.05844259e-01 2.74115857e-02
      -8.67165625e-02 -1.09781057e-01 1.54127728e-03 1.20153455e-02
      -5.47981402e-03 1.91191095e-03 6.90966472e-02 1.08323477e-01
      -1.18972443e-01 -2.27308512e-01 -7.25770518e-02 1.49585158e-02
      -1.05514256e-02 -2.47637182e-03 3.91872891e-04 8.43305327e-03
      -1.60506796e-02 -2.36970372e-02 -5.19398190e-02 9.67164934e-02
      7.13029951e-02 3.15172039e-02 -6.94289702e-05 5.04847951e-02
      -1.10520357e-02 -3.34515013e-02 -1.94845833e-02 -7.49221146e-02
      -1.95260942e-02 4.57734354e-02 2.27872375e-02 -3.16291153e-02
      -7.35832527e-02 -3.66806239e-02 4.79715466e-02 3.04509532e-02
      2.77652144e-02 1.04508452e-01 9.36595574e-02 9.95844901e-02
      2.39334926e-02 3.34760435e-02 -3.42089008e-03 2.61783674e-02
      -1.56684760e-02 -4.81040068e-02 7.15056658e-02 5.68576790e-02
      1.92825682e-03 -9.18502584e-02 1.48886209e-02 -5.14106490e-02
      -6.06139414e-02 -5.07093109e-02 -6.24802597e-02 6.24715164e-02
      4.76152785e-02 1.10479060e-03 -8.41550231e-02 -4.20945548e-02
      -5.39949983e-02 -4.93905842e-02 4.30678800e-02 -2.39564795e-02
      7.59073868e-02 6.75073564e-02 5.64495884e-02 1.72771849e-02
      6.83877245e-02 7.63918087e-03 1.79323852e-02 -2.03536358e-02
      -1.44972624e-02 7.28436187e-02 8.86897817e-02 5.28145730e-02
      2.11784448e-02 3.21008563e-02 -3.93159734e-03 1.20067410e-02
      -9.52793658e-02 -1.39362305e-01 1.03969779e-02 1.51027489e-04
      2.20089853e-02 -7.01109618e-02 -9.78700668e-02 -6.11118078e-02
      -6.63624406e-02 -1.13266625e-01 -1.19595587e-01 8.27066321e-03
      5.39819747e-02 3.29970606e-02 -2.86182109e-03 -2.15444043e-02
      -2.87007801e-02 -4.22068425e-02 -2.39598211e-02 -5.32299876e-02
      3.27064544e-02 2.17113886e-02 5.94801866e-02 -1.12716015e-02
      -4.44095619e-02 3.97486705e-03 2.04517916e-02 1.50312530e-02
      -3.31033729e-02 2.38963552e-02 5.79033941e-02 3.93224321e-02
      2.35712435e-02 3.79655175e-02 1.53912520e-02 5.48900403e-02
      -1.51922792e-01 -1.25612959e-01 -6.27520755e-02 -1.03028733e-02
      1.94087811e-02 -2.74823904e-02 -3.67818624e-02 -6.51413649e-02
      -8.67450982e-02 -9.09195170e-02 -6.23268895e-02 -8.97943787e-03
      -6.99704653e-03 5.65598859e-03 -1.91360153e-02 -2.22862512e-02
      -7.41382018e-02 -7.90604129e-02 1.48002692e-02 -8.83921757e-02
      -4.17452306e-02 2.81404285e-03 3.73809338e-02 4.15323488e-03
      1.41716767e-02 -1.87705066e-02 7.51044452e-02 1.04972549e-01
      4.86713946e-02 2.86835805e-02 5.18496037e-02 8.34151804e-02
      4.71888296e-02 4.03997935e-02 1.29277259e-02 9.24774408e-02
      -7.44980052e-02 -6.27972707e-02 8.63157306e-03 -9.82382707e-03
      1.73307378e-02 -3.57872508e-02 -2.53333375e-02 -1.00070827e-01
      -7.72495121e-02 -3.92773189e-02 -1.87279098e-02 1.94763429e-02
      3.70350741e-02 2.38786382e-03 -3.46284686e-03 2.11969446e-02
      -7.70310909e-02 -4.18313630e-02 9.36337858e-02 2.62706690e-02
      5.91414869e-02 5.60378730e-02 6.96132630e-02 1.47935739e-02
      9.15909559e-03 -4.40868437e-02 2.91715786e-02 1.97571795e-02
      3.07177585e-02 6.06711321e-02 6.36925325e-02 3.31654549e-02
      3.08779888e-02 5.04550487e-02 -2.44627111e-02 1.91675834e-02
      -4.42699492e-02 -2.32011713e-02 1.82181150e-02 2.82713287e-02
      1.59283020e-02 2.14037374e-02 1.00498265e-02 -4.88038138e-02
      -4.81739938e-02 -2.33135577e-02 -6.68240786e-02 1.74024850e-02
      6.51156306e-02 1.40644386e-02 1.06722210e-02 2.80359574e-03
      -1.64923947e-02 -1.55006545e-02 -5.15466742e-02 -9.14338417e-03
      5.04782721e-02 7.40327910e-02 6.39805570e-02 4.51496430e-02
      7.77445883e-02 -1.81425102e-02 4.10511158e-02 -2.91072074e-02
      -6.21896274e-02 -2.93518649e-03 9.81267989e-02 1.18745655e-01
      6.04015216e-02 3.18625197e-02 -1.95939038e-02 -1.24469977e-02
      3.52617316e-02 -5.60574867e-02 2.67125517e-02 6.70783147e-02
      1.96077172e-02 3.55220176e-02 4.64891270e-02 3.49128875e-03
      2.25502364e-02 1.90384891e-02 -6.57301992e-02 2.47436855e-02
      2.74111573e-02 7.73393083e-03 4.66070920e-02 5.33225089e-02
      3.31265107e-02 -4.15298948e-03 -3.40160988e-02 -9.92256626e-02
      5.81768225e-04 9.13580060e-02 1.00053899e-01 7.48459473e-02
      8.23469162e-02 1.12991109e-02 -4.34106728e-03 -6.15002513e-02
      -6.06416576e-02 3.99913825e-02 4.68358807e-02 8.59858915e-02
      1.06272541e-01 9.14956778e-02 4.28967364e-03 -7.81273395e-02
      1.61820110e-02 -4.07351963e-02 1.80824399e-02 2.99062319e-02
      1.86432786e-02 4.36696075e-02 8.49620327e-02 4.98592481e-02
      1.56056853e-02 -5.67301475e-02 -5.85924834e-02 1.49596613e-02
      5.19873276e-02 6.62963167e-02 8.01450685e-02 4.87357602e-02
      1.65102649e-02 -3.06216069e-02 -7.89912716e-02 -4.86872755e-02
      5.52775562e-02 9.54335928e-02 9.22272876e-02 8.59157667e-02
      9.43498537e-02 -3.93223912e-02 -8.88168514e-02 -1.46073565e-01
      -1.34985179e-01 1.88720152e-02 6.50339127e-02 6.20351508e-02
      6.28274083e-02 2.69541834e-02 -7.08468929e-02 -1.35684118e-01
      -1.55033860e-02 -7.09104687e-02 -5.27363177e-03 4.97638732e-02
      8.48617554e-02 5.23247682e-02 2.09202338e-02 -1.16145881e-02
      1.44319246e-02 3.01274620e-02 -2.57044490e-02 -2.87849165e-04
      6.05218224e-02 8.01979506e-04 2.26583164e-02 -2.95511633e-03
      6.68691192e-03 6.55905753e-02 -1.22231379e-01 -1.73136398e-01
      -5.13167977e-02 4.94956598e-03 2.86713280e-02 3.08757685e-02
      -2.46651359e-02 -6.07014969e-02 -6.05456717e-02 -7.25285262e-02
      -1.13377869e-01 -7.93150514e-02 2.82841027e-02 -2.41837446e-02
      -2.35463940e-02 -5.65495938e-02 -7.79869333e-02 -2.13761088e-02
      2.24442617e-03 -3.96074094e-02 -6.09384961e-02 -5.05957268e-02
      -9.75435600e-02 -9.03057456e-02 -5.69182336e-02 -1.31518627e-02
      1.71488356e-02 8.44491869e-02 6.84031323e-02 3.94869708e-02
      7.52921626e-02 3.89549546e-02 3.02777868e-02 3.07806283e-02
      8.67445841e-02 1.07994854e-01 -5.98483086e-02 -9.51464772e-02
      -9.94239226e-02 -6.36178851e-02 -1.40853643e-01 -1.29549742e-01
      -9.35804918e-02 -6.68889806e-02 -4.07514684e-02 9.58710313e-02
      5.18555306e-02 2.56402548e-02 5.22161536e-02 -3.45671214e-02
      -1.09475222e-03 3.64048146e-02 1.02894008e-01 6.58601969e-02
      -5.04377345e-03 -3.54198064e-03 -2.89220549e-02 1.73093136e-02
      6.79175258e-02 3.07353660e-02 1.28471863e-03 1.43043362e-02
      7.88910873e-03 4.16645966e-02 2.35105921e-02 -4.19247821e-02
      -6.49726437e-03 8.98592919e-03 -5.13043739e-02 5.47629744e-02
      5.27830310e-02 6.41822889e-02 -9.79267526e-03 8.84719845e-03
      -2.23722681e-02 3.52547481e-03 3.11475098e-02 -1.78127065e-02
      -4.54279445e-02 1.46431557e-03 -1.47103975e-02 -7.15093128e-03
      1.86668057e-02 -4.62018438e-02 1.22266607e-02 2.83983219e-02
      -6.07472286e-02 -2.15255469e-02 2.84757391e-02 1.72987627e-03
      7.67050609e-02 1.08877696e-01 5.21071181e-02 4.30433527e-02
      -1.87625289e-02 -5.63518070e-02 2.98248883e-02 8.63403752e-02
      3.45680676e-02 -7.86702409e-02 6.84040114e-02 5.39299846e-03
      -3.69185880e-02 -5.71521483e-02 -4.71547283e-02 2.05540005e-02
      5.39910346e-02 -4.34869416e-02 9.55802128e-02 8.64605606e-02
      -8.48811492e-03 -8.62932764e-03 -5.83767332e-02 -4.91054021e-02
      2.99049336e-02 9.90000144e-02 6.51350245e-02 -1.14397593e-01
      3.84151265e-02 -3.26268077e-02 -7.31116831e-02 -1.06872439e-01
      -5.06290123e-02 1.01255924e-02 3.66929024e-02 -1.19863771e-01
      5.55857979e-02 7.86762163e-02 -2.39467993e-02 -8.99668336e-02
      -4.47626784e-02 -1.57221090e-02 6.06969446e-02 1.34333923e-01
      1.13282599e-01 2.18671169e-02 -2.38966439e-02 -1.13058001e-01
      -1.26121342e-01 -4.27763574e-02 -4.56365123e-02 3.00744362e-02
      4.24018763e-02 4.90427390e-02 4.46993895e-02 7.27680847e-02
      8.71174224e-03 -2.66983081e-02 -5.61018586e-02 -1.07019417e-01
      -4.10176590e-02 2.39784538e-04 2.71530673e-02 1.03909988e-02
      -2.80635977e-05 -2.94901710e-02 -7.98036754e-02 -9.91190895e-02
      -1.59983531e-01 -1.58741981e-01 -1.79988265e-01 -8.01133066e-02
      -6.50978321e-03 -3.61890607e-02 -5.99543378e-02 -9.43556521e-03
      5.48996590e-02 8.38970393e-03 2.88085453e-02 -4.67353836e-02
      -3.73495817e-02 6.53068051e-02 -1.02521554e-02 -1.21809900e-01
      -5.13455365e-03 -2.32991739e-03 2.24756692e-02 -2.82546673e-02
      -3.72820385e-02 3.64371091e-02 -5.51348887e-02 -6.99359998e-02
      -4.24065776e-02 -8.65469687e-03 5.42906066e-03 -6.69317394e-02
      -7.71345943e-02 -1.44191399e-01 -1.02358513e-01 -2.88279988e-02
      -9.00907740e-02 -1.45890161e-01 -4.47360761e-02 -2.16124649e-03
      -3.18660624e-02 -7.90210515e-02 -4.24903408e-02 -8.13377369e-03
      9.83202755e-02 -9.47956815e-02 -2.09284276e-01 -1.46383256e-01
      -5.83993457e-02 -5.78215420e-02 -9.91498455e-02 -1.89356543e-02
      1.24153502e-01 1.08092964e-01 -7.35146785e-03 -5.94990030e-02
      -7.54496362e-03 3.05352956e-02 3.16312537e-02 9.90458881e-04
      8.33621919e-02 1.53815776e-01 7.74504542e-02 -6.81978166e-02
      -1.48932666e-01 -8.95450264e-02 -6.82879388e-02 -1.57615259e-01
      -2.25745171e-01 -9.72353369e-02 1.29051492e-01 1.64396688e-01
      4.80235480e-02 -6.22083209e-02 1.69206841e-03 3.04054823e-02
      9.21989139e-03 -4.28158939e-02 1.29097197e-02 1.52494401e-01
      1.79808289e-02 -1.01610035e-01 -7.63350204e-02 -2.31362190e-02
      1.71989202e-02 -5.96969090e-02 -7.17338100e-02 -3.79723944e-02
      5.42790405e-02 4.59018797e-02 8.05949909e-04 3.51189822e-02
      4.08475660e-02 8.40507969e-02 7.13148620e-03 2.42315903e-02
      -3.19658848e-03 5.05298190e-02 5.13564944e-02 -4.49414551e-02
      -1.12494983e-01 -4.79646958e-02 2.05416139e-02 -4.73007880e-04
      -5.64842671e-02 -7.43505731e-02 3.66596766e-02 4.10642326e-02
      1.68028120e-02 -1.70385074e-02 2.30591726e-02 8.48903060e-02
      5.00084572e-02 4.03526351e-02 -8.35821126e-03 1.67562924e-02
      8.86561442e-03 -6.46288320e-02 -1.97755955e-02 1.23546855e-03
      1.95244160e-02 -1.00477878e-02 -1.82467920e-03 -5.11051901e-02
      -1.38164975e-03 1.65836252e-02 -2.32921168e-02 3.34947146e-02
      4.49268632e-02 6.36687353e-02 1.77035742e-02 -3.12827434e-03
      -1.30611183e-02 5.69459461e-02 -7.89998751e-03 -3.48909721e-02
      -3.42515744e-02 -3.11770197e-02 3.72914001e-02 6.72534900e-03
      -1.59975532e-02 -6.26469553e-02 -3.59629653e-02 7.48616904e-02
      2.55809780e-02 2.12229658e-02 3.96521688e-02 6.52280599e-02
      5.04473336e-02 2.41258722e-02 4.68582613e-03 6.75274730e-02
      2.81129852e-02 -4.80510071e-02 -1.84225645e-02 -2.47956049e-02
      -1.35763839e-03 -3.22345309e-02 -5.45225553e-02 -1.16645992e-02
      5.67581542e-02 5.92377968e-02 -5.52524813e-02 -2.61451136e-02
      -1.22536235e-02 -3.96307670e-02 -1.29376464e-02 -8.61088280e-03
      -1.00974133e-02 7.99886659e-02 4.41500694e-02 -2.21898165e-02
      -5.12705781e-02 -2.67044716e-02 -8.30333494e-03 -1.63237806e-02
      -3.23925144e-03 1.74408453e-03 8.73438641e-02 6.48635775e-02
      -3.18735242e-02 -6.13191053e-02 -7.93450624e-02 -5.90215921e-02
      -1.57311326e-03 3.16347764e-03 1.63025651e-02 9.83561799e-02
      6.12376332e-02 -1.09659731e-01 -8.00490230e-02 -7.32585713e-02
      -7.44848326e-02 -4.92545404e-02 -4.12299111e-02 -5.86078726e-02
      7.41619468e-02 1.03782028e-01 2.35415320e-03 -8.04473471e-04
      -1.47920679e-02 -3.54593173e-02 -6.36383425e-03 -1.86451748e-02
      -1.57506112e-02 9.87574160e-02 6.81759045e-02 -6.84558973e-02
      -6.20856769e-02 -1.09879509e-01 -1.19970046e-01 -4.22417745e-02
      -4.53317314e-02 -3.06257885e-02 8.35810676e-02 1.23491473e-01
      -1.67403184e-02 1.13278562e-02 -2.12365557e-02 -4.96614464e-02
      -1.57115282e-03 1.47949008e-03 2.52924897e-02 8.71021301e-02
      6.50485978e-02 -2.60207187e-02 -1.43529451e-03 1.05967037e-02
      1.29790138e-03 -3.97678558e-03 -4.51626815e-03 -3.49074230e-02
      4.17446569e-02 -2.03298610e-02 -5.99759221e-02 1.35109164e-02
      3.06333583e-02 1.03700357e-02 2.99170390e-02 3.53068113e-02
      -3.64595763e-02 -3.86547856e-03 7.72441030e-02 -2.79558115e-02
      3.46718170e-02 5.47344889e-03 -2.56066956e-02 -2.79918294e-02
      -1.74972247e-02 -3.64703499e-02 5.66558763e-02 5.66665716e-02
      3.68396705e-03 7.50245824e-02 3.75171117e-02 -8.85503832e-03
      1.78188048e-02 7.59111578e-03 -5.99929169e-02 8.18126090e-03
      -3.59725431e-02 -6.85099140e-02 3.58425751e-02 7.07633868e-02
      7.00255781e-02 6.22785091e-02 7.99460635e-02 -4.15500291e-02
      -1.31801302e-02 -3.73618267e-02 -1.05177104e-01 -1.34946527e-02
      6.90343380e-02 9.00997892e-02 5.20096272e-02 2.24800706e-02
      -8.56212378e-02 -6.61068261e-02 2.66267043e-02 -1.52831189e-02
      1.12255879e-01 5.50445281e-02 3.96980904e-02 4.43073884e-02
      7.15725869e-02 -4.30004969e-02 3.41096590e-03 -7.75312912e-03
      -4.46947031e-02 2.29012407e-02 1.61790457e-02 6.46045431e-02
      4.29631099e-02 -9.34540201e-03 -1.01815633e-01 -2.24746969e-02
      -7.21600279e-03 -9.46258828e-02 1.03219096e-02 9.82702300e-02
      9.30123851e-02 7.70252123e-02 7.64374658e-02 -3.40837725e-02
      -5.64169558e-03 -6.13872968e-02 -8.36611092e-02 4.87135760e-02
      7.12552071e-02 7.75790587e-02 6.29655123e-02 8.96187052e-02
      -1.30610662e-02 -4.33388129e-02 1.32602639e-02 -4.01236936e-02
      4.48757410e-02 9.28983688e-02 8.89389366e-02 7.67272487e-02
      4.78168912e-02 -4.40629572e-02 1.25644794e-02 -2.32224111e-02
      -5.13446257e-02 3.86093147e-02 6.32055774e-02 7.79781044e-02
      5.85219860e-02 8.25651959e-02 -2.17303131e-02 -3.34830359e-02
      -2.70950533e-02 -1.05549246e-02 8.57253373e-02 1.06130280e-01
      8.77669901e-02 6.28319457e-02 9.61685926e-02 1.20180603e-02
      -4.55672517e-02 -8.86631310e-02 -4.70750555e-02 6.00898340e-02
      1.07719690e-01 7.84189031e-02 3.25013064e-02 2.56335717e-02
      -5.56262247e-02 -1.17501311e-01 -5.46610877e-02 -2.72571743e-02
      1.02694340e-01 1.03848249e-01 9.39636305e-02 8.26733410e-02
      1.01316504e-01 3.65280509e-02 -1.61606073e-03 -1.05836645e-01
      -5.44868745e-02 6.65181950e-02 1.03576586e-01 6.69326633e-02
      5.81369139e-02 4.71901782e-02 -2.54945159e-02 -9.52334926e-02
      -2.37986818e-02 -5.16390800e-02 7.77712034e-04 3.58169042e-02
      1.46597335e-02 -1.98197421e-02 -1.10157090e-03 -6.71760412e-03
      -1.69455092e-02 -8.91654659e-03 -5.51160350e-02 -2.82013975e-02
      6.29221126e-02 -5.11044525e-02 -6.81977570e-02 -2.49931142e-02
      -5.22417575e-03 2.52517425e-02 -4.18578088e-02 -3.21262963e-02
      6.02436848e-02 5.65742701e-02 1.84029937e-02 -3.23543996e-02
      2.43286253e-03 -6.59969216e-03 -2.87467428e-02 5.03908552e-04
      -3.64885814e-02 -7.69233843e-03 2.02305764e-02 -1.83867421e-02
      -5.53617859e-03 1.38655277e-02 7.15425704e-04 -4.95156227e-03
      -8.36154725e-03 -6.27450868e-02 -8.27997476e-02 -6.74842149e-02
      -1.63980827e-01 -1.51469186e-01 -4.15064320e-02 -1.59990843e-02
      2.10698377e-02 1.10862464e-01 7.85368681e-02 3.69046293e-02
      4.82552797e-02 -4.07204255e-02 2.52308603e-02 6.24105111e-02
      1.07818529e-01 9.51637775e-02 6.23308215e-03 -6.50361255e-02
      -5.19951396e-02 -9.32703763e-02 -1.31533816e-01 -7.78470039e-02
      -1.77688524e-02 -2.59699561e-02 1.67907439e-02 1.04271561e-01
      6.58390671e-02 3.36422138e-02 3.02193947e-02 -3.02598290e-02
      9.16487500e-02 1.11031324e-01 1.50981888e-01 1.29095316e-01
      1.13116577e-02 8.81313067e-03 -3.44002508e-02 -6.75868541e-02
      -9.67943016e-03 -2.37294640e-02 -4.49628308e-02 -1.04161762e-02
      -1.92026272e-02 3.30558792e-02 4.85604145e-02 -5.09182597e-03
      4.89807047e-04 2.00868677e-02 -6.46796003e-02 -1.32839046e-02
      4.31687152e-03 1.35133136e-02 -2.13459507e-03 -9.23322700e-03
      -5.49110174e-02 -4.68864217e-02 3.52249108e-02 2.39010789e-02
      1.82771534e-02 3.84826437e-02 5.45984833e-03 6.78889528e-02
      2.89549325e-02 3.44392061e-02 4.39547189e-02 2.60041915e-02
      -5.36713451e-02 4.85897586e-02 5.47296181e-02 3.07906214e-02
      1.23921156e-01 1.13980234e-01 8.85036308e-03 2.66915970e-02
      -1.12695247e-02 -1.16189644e-02 2.09373031e-02 3.82996760e-02
      7.33654648e-02 -1.02634646e-01 2.20024269e-02 1.06717059e-02
      -1.11141717e-02 2.38008844e-03 -1.39481444e-02 -2.21854988e-02
      -7.30408402e-03 -5.79532944e-02 1.42090276e-01 5.28807826e-02
      -6.04665168e-02 -8.90972652e-03 -2.36095507e-02 -1.13262199e-02
      3.05913687e-02 1.17625751e-01 1.56152993e-01 -8.41558725e-02
      -2.01852601e-02 -3.76270749e-02 -3.49947214e-02 9.85128456e-04
      -5.36172390e-02 1.03282947e-02 3.83008495e-02 -7.08706081e-02
      -9.01869964e-03 5.21526970e-02 3.76302972e-02 1.68852080e-02
      3.17382663e-02 -7.98295960e-02 -7.17434287e-02 -8.06841478e-02
      -1.28183058e-02 -5.23287356e-02 1.50078898e-02 3.62253934e-02
      3.14462883e-03 -1.24788461e-02 -1.33887231e-01 -1.33285627e-01
      -1.84576958e-01 -1.07596382e-01 1.02464370e-02 5.28901257e-02
      5.47954664e-02 5.29590659e-02 8.96120220e-02 4.95291278e-02
      5.31214662e-02 3.16253789e-02 9.90016665e-03 -1.92547105e-02
      3.80712142e-03 5.12319170e-02 5.89259081e-02 3.79273742e-02
      1.23278713e-02 -1.38325784e-02 -5.21280468e-02 -3.42658758e-02
      -1.25612900e-01 -1.16280183e-01 -3.63801681e-02 3.21033120e-04
      4.60892096e-02 -4.27020267e-02 -3.15009914e-02 -1.08290628e-01
      -1.07256584e-01 -4.64486964e-02 -1.10164791e-01 -5.63939698e-02
      5.26677407e-02 3.34094162e-03 -1.01554759e-01 -8.79968181e-02
      -5.30121289e-02 -1.60414875e-02 -5.11182472e-02 -6.58862144e-02
      1.71739031e-02 7.21340254e-02 5.08542508e-02 3.70182060e-02
      -1.96937099e-02 -1.66952871e-02 -2.83409767e-02 2.24116948e-02
      -2.20454000e-02 5.99095225e-02 7.77187422e-02 3.64999175e-02
      -3.10800839e-02 -6.53273016e-02 -2.50373147e-02 5.31712808e-02
      9.73813459e-02 -2.99371872e-02 -3.87145877e-02 -6.48868410e-03
      -9.76308435e-03 -1.59321383e-01 -2.67506570e-01 -1.68178335e-01
      1.20018795e-01 1.43252075e-01 8.09163824e-02 -5.57542138e-04
      4.79463190e-02 5.67100272e-02 1.12724770e-03 -1.16739102e-01
      -1.17412083e-01 9.23567638e-02 1.28221273e-01 3.84445637e-02
      5.68042360e-02 5.15138656e-02 -3.33948694e-02 -1.21692054e-01
      -2.49042392e-01 -1.85747266e-01 7.61036202e-02 9.39607471e-02
      1.39337167e-01 9.84570682e-02 6.32281154e-02 5.40242232e-02
      -2.36785412e-03 -1.62719622e-01 -1.93839088e-01 -2.57303752e-02
      4.11828943e-02 -4.44820710e-02 -7.23874718e-02 -1.18030226e-02
      6.11238554e-02 7.93725550e-02 -1.86942406e-02 -1.03787020e-01
      -1.93801019e-02 -1.57977641e-02 -2.35502869e-02 -4.43864726e-02
      3.13471630e-02 1.18507326e-01 1.31505191e-01 6.84088990e-02
      -1.26439556e-02 -2.65183840e-02 6.91993069e-03 9.67360288e-03
      -1.16541870e-02 -2.29321383e-02 -9.18931700e-03 1.07337367e-02
      -1.06847130e-01 -2.25242898e-01 -1.13835938e-01 -5.57408482e-02
      -4.94226627e-02 -4.06746417e-02 -2.84866733e-03 3.37362811e-02
      1.04692519e-01 3.75328846e-02 -6.73614368e-02 -6.44399673e-02
      -5.63468523e-02 -5.14356270e-02 -1.62191056e-02 8.68047960e-03
      8.84607658e-02 5.72596528e-02 2.36983150e-02 -7.78313428e-02
      -8.17455649e-02 1.95934307e-02 1.50209274e-02 5.18556386e-02
      7.81830996e-02 9.64120477e-02 9.57141146e-02 6.88208565e-02
      -2.34656464e-02 -1.43806627e-02 -1.27813056e-01 -1.24337211e-01
      -7.31512681e-02 -4.47770655e-02 5.16329221e-02 8.23589861e-02
      2.17966009e-02 -9.96043831e-02 -1.01590663e-01 -4.36806977e-02
      -4.64096293e-02 6.35423325e-03 7.80520588e-02 5.40550984e-02
      6.61904514e-02 3.58382240e-02 -9.43157673e-02 -6.73061460e-02
      4.11765315e-02 -2.47757509e-02 -9.86244623e-03 2.92153228e-02
      6.15092218e-02 4.56905887e-02 5.75160757e-02 -1.01082958e-02
      -9.37397219e-03 1.79606620e-02 -1.48539280e-03 1.97519567e-02
      3.48962247e-02 7.67240971e-02 8.04383010e-02 8.09192732e-02
      -6.37866696e-03 1.60475206e-02 -9.73571688e-02 -7.09998384e-02
      -1.37187215e-02 5.18908985e-02 3.35447453e-02 -2.18775705e-03
      1.29496576e-02 -1.18514404e-01 -1.01619959e-01 -1.00612164e-01
      -6.22407235e-02 -3.47274318e-02 2.25505158e-02 3.36257368e-02
      6.79786950e-02 2.07955092e-02 -1.07222408e-01 -1.33762896e-01
      4.39274982e-02 -4.26119706e-03 1.65984184e-02 -1.64542478e-02
      2.26354022e-02 5.41295223e-02 3.74802910e-02 -4.19341773e-02
      1.05369100e-02 7.22220838e-02 5.36526553e-03 3.56147587e-02
      3.27210464e-02 6.46306425e-02 1.09555103e-01 7.94592723e-02
      3.99356559e-02 7.08343685e-02 -1.32941529e-01 -1.20858200e-01
      -3.21740210e-02 3.98250006e-04 3.31711071e-03 4.62099388e-02
      -5.24033010e-02 -1.63389295e-01 -1.60709932e-01 -1.18463770e-01
      -1.03954084e-01 -4.83436361e-02 -1.10199247e-02 7.42377574e-03
      5.64164780e-02 2.32376787e-03 -9.34257358e-02 -1.18696526e-01
      2.62623001e-02 -4.77950498e-02 2.44309921e-02 -1.37556829e-02
      4.31206599e-02 7.35777691e-02 3.56278978e-02 -2.30633505e-02
      3.37183625e-02 3.17602344e-02 3.20056500e-03 1.07348479e-01
      1.04667442e-02 6.97360234e-03 6.85425624e-02 6.49647862e-02
      7.89285917e-03 1.23670669e-02 -1.29959852e-01 -1.27118707e-01
      -6.18100241e-02 -5.99956922e-02 -4.18322343e-05 5.60089946e-02
      1.37957558e-02 -6.76254854e-02 -1.16647221e-01 -2.99521536e-02
      -9.42110419e-02 -6.15179213e-03 -4.25470173e-02 -4.00388837e-02
      3.98036987e-02 2.58779172e-02 -2.76989508e-02 -4.38417494e-02
      3.02902907e-02 4.97647887e-03 1.18284889e-01 5.99728599e-02
      2.58081891e-02 3.66052240e-02 8.40315744e-02 -3.49707738e-03
      -1.79640278e-02 -1.28089329e-02 -1.65116112e-03 7.28539750e-02
      5.44228144e-02 7.26328790e-02 5.37815429e-02 3.79975736e-02
      -4.37546521e-02 -3.34093682e-02 -3.80016305e-02 -3.42420228e-02
      5.59414104e-02 3.57840620e-02 -2.09041517e-02 8.06922652e-03
      5.11334650e-02 -2.40514465e-02 -2.42725797e-02 -3.49408090e-02
      -1.80893056e-02 6.39075637e-02 3.31556313e-02 4.80124634e-03
      3.76072489e-02 6.44819811e-02 -3.77641283e-02 -4.56133448e-02
      1.28080510e-02 -9.37183481e-03 6.76065981e-02 8.22838098e-02
      9.24041271e-02 6.59113228e-02 4.78465706e-02 -3.96628678e-02
      -1.13698347e-02 -4.86806594e-02 -4.22753990e-02 5.70289604e-02
      8.01865831e-02 9.32136402e-02 7.13037774e-02 7.41171986e-02
      -3.90422381e-02 -3.73440199e-02 -5.46505069e-03 -1.66377109e-02
      6.82507902e-02 2.39287652e-02 1.90739501e-02 7.06902593e-02
      4.64120060e-02 -1.46842543e-02 1.08860871e-02 -3.40733863e-02
      -1.31088104e-02 4.58866507e-02 2.34838016e-02 1.57683752e-02
      4.79683094e-02 4.56295051e-02 -6.11484125e-02 -6.17693737e-02
      -2.89952829e-02 -9.32932869e-02 6.67752549e-02 9.28998291e-02
      1.10240057e-01 7.99604282e-02 7.74469823e-02 -2.99914693e-03
      -3.05222254e-03 -7.80966356e-02 -1.17775477e-01 5.30188158e-02
      8.33842680e-02 4.49741185e-02 4.92647700e-02 1.86500419e-02
      -6.00535609e-02 -8.40171948e-02 -1.13043049e-02 -4.75872569e-02
      5.10455258e-02 6.84673786e-02 6.60880953e-02 3.80106717e-02
      3.27075720e-02 -2.79507227e-02 -3.54654528e-03 -2.62831058e-02
      -7.69672096e-02 3.07415314e-02 6.17392994e-02 5.66515625e-02
      6.65648207e-02 2.23023333e-02 -2.97257677e-02 -3.95723581e-02
      -4.53006439e-02 -7.97469765e-02 2.34452263e-02 3.14096399e-02
      -1.13966251e-02 -6.52346313e-02 -4.38185595e-02 -6.64213896e-02
      -6.94601908e-02 -2.65307557e-02 -6.80083707e-02 8.44856910e-03
      3.11677512e-02 -3.21135372e-02 -3.87781113e-02 -5.85178137e-02
      -7.15664029e-02 -4.45188321e-02 -1.86795753e-03 -3.12249586e-02
      3.92646678e-02 3.89188975e-02 -1.44855138e-02 -1.51978433e-02
      -1.34514710e-02 -3.08601521e-02 4.62076766e-03 6.10604286e-02
      -1.93823911e-02 7.64022619e-02 5.83396815e-02 -2.38488615e-02
      6.37924252e-03 3.01189329e-02 2.62190644e-02 6.83278292e-02
      -3.38135362e-02 -9.60799232e-02 -6.75729886e-02 -1.01054572e-01
      -1.29139587e-01 -1.07775457e-01 -7.21157789e-02 -8.61163139e-02
      -2.91989073e-02 6.05924167e-02 3.26987468e-02 1.08431876e-02
      1.10781323e-02 1.07347907e-03 6.11767955e-02 5.71124740e-02
      8.35464075e-02 8.71411115e-02 3.10486965e-02 -2.32408363e-02
      -1.10789556e-02 -7.32525364e-02 -7.71251768e-02 -7.89961591e-02
      -3.07381321e-02 -3.27345915e-02 4.27948311e-02 1.11094810e-01
      7.19452351e-02 4.88588437e-02 2.40588672e-02 3.71139217e-03
      4.10203002e-02 3.82971652e-02 7.01378584e-02 1.07659854e-01
      -2.71864180e-02 -3.19724046e-02 -6.12066090e-02 -5.91997541e-02
      5.05308844e-02 3.28020076e-03 4.99955565e-03 2.79509220e-02
      -2.39768121e-02 3.00373379e-02 1.42411897e-02 8.47188570e-03
      3.53638572e-03 1.47254607e-02 -8.65868181e-02 -2.87843053e-03
      4.99580279e-02 1.28792739e-02 -1.70236491e-02 9.46471747e-03
      -1.03518600e-02 -3.65244076e-02 2.64548417e-02 -3.15152109e-02
      -3.36178131e-02 4.57815221e-03 -4.30328362e-02 4.30290289e-02
      4.42745425e-02 -2.73216306e-03 -1.03388233e-02 -2.48801894e-04
      -5.97565137e-02 1.70184975e-03 7.11910501e-02 3.80146205e-02
      1.27454370e-01 1.25776276e-01 2.18793657e-02 -6.39681378e-03
      -3.33561413e-02 -5.81602231e-02 -1.26897376e-02 5.94516471e-02
      7.53790587e-02 -7.41583258e-02 3.31665436e-03 5.97964227e-03
      -3.46052311e-02 -7.68869743e-03 -6.07031249e-02 -7.45391101e-02
      -2.79719234e-02 -5.16471937e-02 1.28190860e-01 1.45288780e-01
      8.90863612e-02 5.18377200e-02 -6.08777069e-02 -3.76932546e-02
      1.18271234e-02 9.41682309e-02 8.11408386e-02 -1.96946226e-02
      3.43073495e-02 7.72559317e-03 -1.24011049e-02 -9.78356693e-03
      -1.49532733e-02 -1.69856641e-02 -1.77049320e-02 -7.31930807e-02
      -8.55676904e-02 -1.44366408e-02 -2.48037558e-02 -5.87929450e-02
      -1.95453260e-02 -1.32767223e-02 1.27451187e-02 -3.94328460e-02
      -4.83182855e-02 -6.59241080e-02 8.83968431e-04 3.56224552e-02
      3.67021076e-02 1.05363363e-02 4.33596335e-02 2.66100261e-02
      -1.87440496e-02 -6.19442873e-02 -2.86635812e-02 -3.14049958e-03
      1.18514001e-02 2.69479089e-04 -1.65384375e-02 4.92060445e-02
      6.89800233e-02 1.08182579e-02 -1.63833816e-02 4.56858892e-03
      -1.90531373e-05 1.38915740e-02 5.65582365e-02 3.96947237e-03
      4.93239835e-02 7.72598013e-02 5.63122891e-02 6.57288358e-02
      -3.61728296e-02 -6.32890314e-02 -3.93546484e-02 1.59550924e-02
      -3.27445124e-03 1.53518366e-02 -3.01783364e-02 -3.34398299e-02
      7.17810914e-03 6.45228382e-03 -3.76947857e-02 1.51108333e-03
      3.06318384e-02 -4.53605838e-02 -6.16447367e-02 -5.96080311e-02
      -5.57575487e-02 4.53656912e-02 3.85965593e-03 6.00580638e-03
      -2.71077231e-02 4.47573327e-02 8.67614988e-03 8.80447123e-03
      2.53250282e-02 2.75718123e-02 6.15001023e-02 1.71330683e-02
      1.13830566e-02 -6.90692943e-03 -1.10653823e-03 -3.22706103e-02
      -5.91247976e-02 -4.75167744e-02 -3.80899869e-02 2.81969830e-02
      6.82287738e-02 -2.00004540e-02 -1.42057445e-02 4.55918396e-03
      -1.00713037e-02 -2.78631616e-02 -1.22804426e-01 -1.14993699e-01
      4.01233807e-02 4.04387563e-02 4.41854596e-02 2.47098710e-02
      2.88353134e-02 2.62957290e-02 3.27774659e-02 -8.65804255e-02
      -1.30092829e-01 -4.61161323e-02 6.39507547e-02 -6.65553845e-03
      -4.94401250e-03 -1.26671530e-02 1.90814193e-02 1.45927770e-02
      -1.39311422e-02 -3.02488543e-02 4.38374020e-02 1.77301951e-02
      -3.62455496e-03 3.60478312e-02 3.30182053e-02 4.33708876e-02
      8.63024741e-02 8.30697920e-03 -3.45890708e-02 -4.24490944e-02
      7.23045915e-02 5.07587455e-02 3.85616198e-02 7.66882859e-03
      -1.94534706e-03 3.24290097e-02 -4.62377593e-02 -1.43064454e-01
      -8.08139890e-02 1.01021957e-03 4.89467755e-03 2.69867014e-02
      9.55000892e-03 1.12603772e-02 8.02664086e-02 5.48482798e-02
      -4.24826667e-02 -6.98991790e-02 1.11807128e-02 -2.53457222e-02
      2.86507290e-02 6.40666261e-02 -3.69475107e-03 1.79610215e-02
      -3.52706830e-03 -5.37096523e-02 -5.47684208e-02 -3.50855440e-02
      -3.75990719e-02 7.76480604e-03 -1.04519743e-02 8.97476915e-03
      4.19807173e-02 3.64311561e-02 -7.89449550e-03 -4.87206392e-02
      -2.81318207e-03 -6.45186454e-02 -2.68264282e-02 -2.06547487e-03
      1.67524908e-02 4.53658029e-02 3.62680331e-02 -5.48959710e-02
      -1.95337050e-02 3.14551182e-02 -2.50457656e-02 3.74277271e-02
      9.98693258e-02 4.36552614e-03 -8.56527686e-03 4.87165861e-02
      -8.67699273e-03 4.56514098e-02 -3.89724597e-02 -8.99810046e-02
      -8.18904024e-03 -9.71068535e-03 -5.03075421e-02 3.46661150e-03
      2.69670971e-02 -2.29509864e-02 -3.53346132e-02 2.63630785e-02
      -3.70329581e-02 5.45841455e-02 6.95654228e-02 -9.72346496e-03
      8.58002156e-03 3.15486267e-02 1.73258614e-02 -7.23269361e-04
      4.23608087e-02 9.19510238e-03 3.77054438e-02 6.84539601e-02
      -4.45608348e-02 -7.45319724e-02 1.20922346e-02 -1.01692621e-02
      3.46504003e-02 -1.05729345e-02 -2.18491368e-02 2.28602681e-02
      8.01029503e-02 -8.27370025e-03 8.00967391e-04 2.36696005e-02
      8.72444548e-03 -9.78756137e-03 2.95706932e-02 -2.87162494e-02
      4.75087389e-02 4.99728471e-02 -5.96784838e-02 -6.25509173e-02
      2.33504120e-02 4.26451191e-02 3.00528072e-02 2.15095375e-02
      -1.64196603e-02 5.24447635e-02 7.62639344e-02 -3.73287536e-02
      -4.24484933e-05 4.59240191e-02 6.80282861e-02 3.83449756e-02
      -3.58063495e-03 -4.49409448e-02 -3.15315468e-04 3.08455881e-02
      1.27815164e-03 1.43554881e-02 -9.42503754e-03 -6.96861073e-02
      -5.97670972e-02 4.18791361e-03 -1.75537672e-02 3.04250862e-03
      2.15265732e-02 1.94428395e-02 2.74335798e-02 4.19869795e-02
      -4.09602337e-02 -2.89158244e-02 -3.44836153e-03 -4.37610634e-02
      5.48770390e-02 4.42346931e-02 -1.68544576e-02 -7.68027734e-03
      -1.56840794e-02 1.01503609e-02 -1.26617774e-02 4.18582611e-04
      -6.02748357e-02 2.97640022e-02 2.85607129e-02 -6.93228887e-03
      -7.74652231e-03 6.92899711e-03 -1.01386607e-02 -4.50689234e-02
      -1.75180454e-02 -2.94703785e-02 -2.11905874e-02 -4.80146967e-02
      -4.86229584e-02 1.19728409e-02 3.95303555e-02 -2.47714650e-02
      -2.51921322e-02 4.36211117e-02 1.64666809e-02 1.97802391e-02
      -1.72105394e-02 -3.62607315e-02 1.64100211e-02 2.25715656e-02
      4.75673750e-02 3.77642252e-02 -3.00953947e-02 -6.87103420e-02
      1.55679435e-02 -4.03455645e-02 -6.01620860e-02 -1.55828102e-02
      8.50235301e-05 -3.96540873e-02 -4.41273935e-02 3.95335779e-02
      -3.34165548e-03 6.15809532e-03 -3.83160301e-02 -5.83402999e-02
      5.77059295e-03 -6.29361020e-03 -2.02105530e-02 4.97779474e-02
      3.25717963e-02 7.45566934e-03 5.05660176e-02 -2.79828953e-03
      -3.88595536e-02 -3.47409137e-02 3.62089910e-02 1.07658925e-02
      3.26223560e-02 8.96283053e-03 -4.94731544e-03 5.76963685e-02
      -1.76083595e-02 -1.57136042e-02 5.27736312e-03 6.44613057e-02
      -2.09984798e-02 4.45834687e-03 4.71693128e-02 -1.74217261e-02
      1.85806509e-02 -1.27777522e-02 -4.16636802e-02 -4.15722132e-02
      1.34513527e-03 -3.59912694e-04 6.18020631e-02 3.42763513e-02
      -3.60969380e-02 1.13261295e-02 -2.60641091e-02 9.51179117e-03
      8.26331135e-03 3.23829912e-02 -9.28547606e-03 4.79106195e-02
      2.59239376e-02 -1.58153276e-03 3.05831749e-02 -4.64135744e-02
      -4.45295200e-02 8.34521279e-03 4.24279757e-02 -1.48988618e-02
      3.45310122e-02 -1.78139727e-03 1.21776853e-02 5.03589958e-02
      -1.08159948e-02 -5.49338534e-02 -3.41623649e-02 1.88430417e-02
      -2.37868428e-02 -1.37546128e-02 3.37932967e-02 -5.70288301e-02
      1.77378282e-02 -4.08973917e-02 -1.36587089e-02 1.15355542e-02
      3.92990783e-02 -2.33123153e-02 5.88505752e-02 4.19643298e-02
      2.70348089e-03 4.14570756e-02 -8.04256066e-04 -3.23883519e-02
      -3.39773856e-02 3.18467617e-02 8.37803818e-03 3.97368819e-02
      9.40841809e-03 -1.72973070e-02 5.31445146e-02 2.06324756e-02
      -3.98871303e-02 -2.86434051e-02 1.13434633e-02 -4.06944677e-02
      -2.04325318e-02 -2.43284795e-02 -6.55996576e-02 1.91704948e-02
      1.54538341e-02 3.50913731e-03 4.42833453e-03 3.77656589e-03
      -2.48082560e-02 -1.88061427e-02 -8.08490068e-03 6.92207878e-03
      7.45069012e-02 1.01404293e-02 -4.31880206e-02 -4.59173322e-02
      1.73708405e-02 2.39266250e-02 2.34578811e-02 -1.47289205e-02
      -3.51190306e-02 3.77722196e-02 6.91619935e-03 1.81576982e-02
      1.81032438e-02 1.64012797e-02 -6.69085234e-03 -6.97649410e-03
      -1.09682865e-02 -6.39927760e-02 -5.94251882e-03 -6.28858432e-03
      -7.40123391e-02 -6.69575110e-02 -3.02136107e-03 -1.84145346e-02
      1.88459922e-02 2.38712505e-02 -4.95126508e-02 2.03244817e-02
      2.72457357e-02 -7.20206574e-02 -4.87415418e-02 2.64534261e-02
      2.93031763e-02 6.08217455e-02 -9.86582320e-03 -4.70926724e-02
      2.51069739e-02 -4.29406017e-03 -3.87955680e-02 -6.93725497e-02
      6.74521038e-03 3.30613856e-03 6.65718131e-03 2.81936061e-02
      9.48353205e-03 6.94643557e-02 7.68101737e-02 1.78746576e-03
      -1.56305432e-02 2.94496883e-02 5.47201112e-02 3.00133098e-02
      -2.00181827e-03 -6.68449253e-02 -4.71307077e-02 -7.34477639e-02
      -8.93637761e-02 -9.31588337e-02 -3.79868671e-02 -3.87799777e-02
      1.93104020e-03 4.22102734e-02 3.46688852e-02 4.26140688e-02
      2.55412161e-02 -4.23302641e-03 2.15727761e-02 6.90322276e-03
      2.43635792e-02 4.10111062e-02 -4.26072627e-02 -3.99282314e-02
      -2.84161838e-03 -1.35722095e-02 -1.30198579e-02 -3.38460766e-02
      -5.36989272e-02 2.06836909e-02 -1.33287273e-02 1.30395014e-02
      3.83991003e-02 7.06991479e-02 6.30440190e-02 8.30974504e-02
      3.68749499e-02 2.51605101e-02 8.61495808e-02 5.29690459e-02
      -6.75354302e-02 -1.69601943e-02 -4.16820794e-02 -5.80151752e-02
      2.82432791e-02 -9.29256715e-03 -2.39591282e-02 -1.06458142e-02
      -7.04677850e-02 -7.22964620e-03 3.48844728e-03 -3.29625979e-02
      -1.93757396e-02 5.57211526e-02 -3.59823741e-02 -2.38064304e-02
      1.43241808e-02 4.05838247e-03 -5.76180145e-02 -6.29642326e-03
      6.64997380e-03 -1.80666167e-02 7.10864067e-02 2.54145097e-02
      9.97619145e-03 5.39349541e-02 -1.98436063e-02 1.58097837e-02
      2.83770217e-03 -2.11232062e-02 -3.65147106e-02 3.37451920e-02
      -1.96941998e-02 7.55944755e-03 6.19703606e-02 2.32852474e-02
      6.62598386e-02 1.05249263e-01 6.67428970e-02 5.98496050e-02
      -1.28995210e-01 -1.26493156e-01 -1.12015583e-01 -2.84671225e-02
      6.23430172e-03 -9.48875844e-02 3.94541062e-02 2.89460681e-02
      3.03510968e-02 -1.04843616e-01 -9.60928202e-02 -1.20961644e-01
      -1.05677627e-01 -1.49743482e-01 7.51882195e-02 1.02554545e-01
      8.17195848e-02 5.81127368e-02 4.15553153e-02 -2.02972461e-02
      2.21027411e-03 4.32292111e-02 6.40666261e-02 -6.25012591e-02
      8.99435058e-02 5.92833683e-02 2.88290028e-02 9.48304385e-02
      -1.70498658e-02 -2.69848909e-02 -3.56447287e-02 -1.29699782e-01
      -7.67249092e-02 -5.01895472e-02 -5.08538214e-03 1.34795150e-02
      -4.64486405e-02 1.54654086e-02 -9.56961885e-03 -6.66870251e-02
      -5.60839511e-02 -7.11975023e-02 -9.62635651e-02 -3.64224464e-02
      3.86374854e-02 -5.73113784e-02 -2.05304679e-02 2.27635708e-02
      -2.29490157e-02 -1.06768738e-02 -3.63041088e-02 8.61251652e-02
      6.39425144e-02 3.01115103e-02 4.82622907e-02 1.41814323e-02
      3.90489362e-02 4.79094610e-02 -5.63310552e-03 -2.07553953e-02
      1.22908666e-03 2.73339860e-02 6.05827980e-02 1.80518255e-02
      -7.67471083e-03 1.72524434e-02 4.47551049e-02 1.27893817e-02
      -2.38878075e-02 -7.72287846e-02 -6.61948770e-02 2.81263050e-02
      2.82165818e-02 4.90671583e-03 1.78734902e-02 6.55634387e-04
      -1.20544725e-03 -3.77100185e-02 -7.11763874e-02 -3.91067266e-02
      -2.82391850e-02 -8.48733336e-02 -1.09378263e-01 -4.85495143e-02
      -3.56726125e-02 -4.69148010e-02 3.64495739e-02 4.31550760e-03
      2.38763038e-02 4.12810631e-02 1.09936677e-01 -2.83021317e-03
      4.53449152e-02 5.22573665e-02 4.25910540e-02 2.71636732e-02
      1.83979087e-02 4.25301008e-02 7.72048393e-03 5.68207465e-02
      -7.56628960e-02 -4.16209660e-02 4.69835522e-03 -1.67069351e-03
      4.30401042e-02 -3.32969390e-02 -5.12973741e-02 -2.01899502e-02
      -4.14719395e-02 -1.59885399e-02 -2.67172959e-02 -4.29704078e-02
      1.54059818e-02 -2.21179985e-02 -6.55409321e-02 -2.85636429e-02
      3.19069289e-02 4.49406123e-03 7.86585454e-03 -3.12667973e-02
      -4.62063700e-02 -4.80801016e-02 8.49915519e-02 5.14652207e-02
      4.54218015e-02 1.15155056e-02 8.62973854e-02 -1.11062834e-02
      1.75602902e-02 4.16345522e-02 5.98750748e-02 -1.71285341e-04
      -4.52533737e-03 2.58266106e-02 1.84723753e-02 8.97893012e-02
      2.79402733e-03 1.53055377e-02 -2.02076305e-02 -1.07062468e-02
      -7.74136744e-03 -4.16693389e-02 2.70336531e-02 5.85299358e-02
      -1.63842775e-02 -8.26558471e-03 2.56061684e-02 -1.34775219e-02
      -1.44553073e-02 -2.99725868e-02 -5.16963266e-02 -3.46456049e-03
      -9.52923670e-04 -3.66262943e-02 -4.03873026e-02 3.10147237e-02
      3.06664035e-02 3.87971438e-02 1.40289729e-02 -1.20268390e-02
      6.15845472e-02 3.48357186e-02 6.05165847e-02 -4.99283597e-02
      3.45734023e-02 4.61901771e-03 4.63191718e-02 -1.18902335e-02
      8.58003550e-05 4.08902578e-02 2.55456846e-02 5.73941432e-02
      -4.84528318e-02 3.85519490e-02 2.49183830e-02 3.03887315e-02
      -4.62398538e-03 -6.79740161e-02 -2.53872313e-02 -3.47645916e-02
      -8.31955820e-02 -5.46165891e-02 3.61984931e-02 3.73063236e-02
      1.96812768e-02 3.88968326e-02 -2.87150685e-02 5.41950651e-02
      3.52751948e-02 -2.79969890e-02 -4.76419693e-03 6.47630766e-02
      3.88375521e-02 1.11960117e-02 -5.13771549e-02 -2.37370972e-02
      2.87454464e-02 -5.23063540e-03 -1.07011860e-02 -9.99775454e-02
      3.13940942e-02 6.17653355e-02 7.08420202e-03 1.27894059e-02
      -1.91280637e-02 5.60843386e-02 1.25295892e-02 3.46524529e-02
      -6.45977706e-02 7.27617592e-02 7.33663142e-02 6.51918212e-03
      2.07274240e-02 -3.20891328e-02 4.77947034e-02 2.92134192e-02
      -9.52145904e-02 -9.41749513e-02 2.83838026e-02 4.92450818e-02
      2.21213903e-02 2.62384545e-02 1.53621798e-03 8.97017047e-02
      5.23765348e-02 -5.70526794e-02 -4.27376777e-02 5.48172817e-02
      4.87078205e-02 5.89825884e-02 1.40287483e-03 -5.09160049e-02
      4.51015085e-02 3.22519504e-02 1.00282924e-02 -1.09763309e-01
      2.66330335e-02 5.31489998e-02 -4.87561396e-04 9.68524721e-03
      1.88017660e-03 1.08642876e-01 6.44071475e-02 2.52298974e-02
      -7.27308095e-02 5.35718612e-02 5.78542128e-02 2.47739237e-02
      -7.17669260e-03 -2.40534656e-02 5.46460412e-02 3.69085409e-02
      -6.04368001e-02 -5.69973998e-02 -5.23660146e-03 1.69381667e-02
      2.09637210e-02 -8.95483047e-03 -4.84813266e-02 2.77858339e-02
      2.19582617e-02 -4.51168381e-02 -3.63249779e-02 3.48913367e-04
      1.36398505e-02 8.27271678e-03 1.69441234e-02 -8.23546387e-03
      1.06186450e-01 2.44651716e-02 2.01920941e-02 -5.26946709e-02
      2.89467461e-02 5.18334955e-02 1.42195355e-02 2.47162301e-02
      -3.20512950e-02 4.05639187e-02 -1.68855097e-02 2.86435839e-02
      -3.64847742e-02 5.15868627e-02 7.90371224e-02 1.67107750e-02
      -3.44833732e-02 -3.53047065e-02 1.17581142e-02 -5.49926981e-03
      -4.15673740e-02 -2.39370903e-03 1.79267805e-02 1.90281589e-02
      -4.83974302e-03 2.79573798e-02 2.81005614e-02 3.49811688e-02
      3.34488624e-03 -1.69231594e-02 8.37712083e-04 3.78899127e-02
      7.55475787e-03 6.81849569e-02 2.91897403e-03 -6.51021078e-02
      6.24437397e-03 -2.70813946e-02 2.19378229e-02 -7.74395540e-02
      1.58961359e-02 1.83375049e-02 1.16854031e-02 8.16456694e-03
      -3.19412723e-02 2.27026492e-02 -2.76144361e-03 5.17584123e-02
      -4.71370704e-02 2.73176190e-02 7.10681034e-03 4.35767509e-02
      7.99784809e-03 -1.91389974e-02 1.22047663e-02 -1.01526454e-02
      -1.39310947e-02 -5.50958440e-02 2.64635216e-02 1.18056228e-02
      4.67423461e-02 5.00699831e-03 -4.73738909e-02 4.70143445e-02
      1.93142723e-02 -1.77456439e-02 -1.66849680e-02 5.04123531e-02
      1.57212988e-02 4.32974994e-02 -1.15069514e-02 -4.52271588e-02
      2.83823758e-02 -2.80003436e-02 8.41597188e-03 -8.82831067e-02
      4.07476723e-02 1.37928268e-02 6.55867681e-02 4.06791121e-02
      -4.23775911e-02 5.26548475e-02 -1.54986214e-02 3.68178473e-04
      -3.66610512e-02 3.67256775e-02 2.74339970e-02 5.30616716e-02
      -2.64575495e-03 -7.10965842e-02 2.99485587e-02 1.64780188e-02
      -4.41231765e-02 -2.86139995e-02 4.74984199e-03 -3.57017778e-02
      6.03560433e-02 1.76669918e-02 -8.99183284e-03 3.98881584e-02
      -5.37239993e-03 -4.89570498e-02 -7.44903907e-02 1.10530052e-02
      6.39826199e-03 5.65244146e-02 5.78211097e-04 -7.69295767e-02
      5.62445968e-02 1.06889557e-03 -1.88318975e-02 -5.41180074e-02
      -4.59998520e-03 1.75900124e-02 6.88257813e-02 3.24034318e-02
      -5.60107641e-02 1.52060306e-02 -3.42433080e-02 5.35066798e-03
      -7.51130655e-02 2.13999525e-02 2.42314804e-02 5.43571152e-02
      1.76546220e-02 3.75728216e-03 1.56056415e-02 -4.27262671e-02
      -6.99324831e-02 -6.58043101e-02 4.28262018e-02 4.35092077e-02
      6.16164580e-02 -1.39034558e-02 -3.82732297e-03 3.70368138e-02
      1.88761801e-02 -2.31709853e-02 -1.19667640e-03 4.44097854e-02
      4.45240214e-02 1.19076176e-02 -6.15931174e-04 -3.09048370e-02
      3.39700766e-02 -4.32248153e-02 -2.59213671e-02 -1.09180130e-01
      1.19937910e-02 4.42743711e-02 7.76617974e-02 -2.58140522e-03
      1.05340658e-02 9.15550739e-02 -6.62044506e-04 5.42892516e-02
      -1.80536658e-02 -8.65162816e-03 3.24245989e-02 3.42343152e-02
      -1.91940293e-02 -6.10925481e-02 1.45143373e-02 -1.93012394e-02
      -7.16842487e-02 -8.34826156e-02 -5.69664966e-03 1.73259974e-02
      1.08136600e-02 -1.39065506e-02 -8.39302549e-04 7.63607770e-02
      6.50685504e-02 -2.43528020e-02 -2.37981845e-02 1.37334457e-02
      4.83774059e-02 4.84506227e-02 -1.98941603e-02 -2.22339667e-02
      7.73347095e-02 -2.35641040e-02 3.14581767e-03 -7.23398775e-02
      -5.87420538e-02 2.23537479e-02 5.73453940e-02 8.59523099e-03
      -1.95423178e-02 8.50488618e-02 1.25910537e-02 1.74910724e-02
      -2.55008992e-02 3.84980738e-02 6.64169192e-02 7.23799542e-02
      -7.36479908e-02 -4.56396043e-02 2.27611214e-02 1.87314991e-02
      -2.96839122e-02 -5.64726032e-02 -5.11333719e-02 -1.07312333e-02
      -6.42686244e-03 1.94949973e-02 4.96844240e-02 8.26485455e-02
      5.77522293e-02 1.84455682e-02 -1.31319752e-02 -9.05893091e-03
      8.11588690e-02 5.57798147e-02 -5.28483801e-02 -7.45432451e-02
      6.19030222e-02 -3.05849910e-02 -2.61021685e-02 -8.90819803e-02
      -6.05687685e-02 -1.45810721e-02 -7.77182356e-03 6.70259744e-02
      5.94938584e-02 1.15625106e-01 3.06126233e-02 2.59728841e-02
      -2.41994485e-02 1.74131300e-02 8.02858844e-02 7.15204775e-02
      -4.05814946e-02 2.85941432e-03 -2.10458487e-02 -8.13845024e-02
      7.06952205e-03 -5.84769472e-02 -3.84600684e-02 2.36707926e-02
      -3.05133406e-02 -2.24325364e-03 -2.76370365e-02 -4.18670066e-02
      -4.89265993e-02 2.29227040e-02 -4.02108245e-02 -3.41380276e-02
      4.47034463e-02 -9.74164170e-04 -2.39043254e-02 1.34638767e-03
      5.71633782e-03 -5.96031509e-02 8.48180130e-02 -7.65159205e-02
      -5.23020290e-02 -1.67894308e-02 -2.72318181e-02 -2.36400701e-02
      -4.47818637e-02 -2.70129088e-02 -1.37774842e-02 1.15613252e-01
      -1.84687041e-02 -6.84030801e-02 3.19472188e-03 -1.82879604e-02</_></support_vectors>
  <decision_functions>
    <_>
      <sv_count>1</sv_count>
      <rho>-1.6648056923284151e+00</rho>
      <alpha>
        1.</alpha>
      <index>
        0</index></_></decision_functions></my_svm>
</opencv_storage>
